digraph Tree {
node [shape=box, style="filled, rounded", color="black", fontname=helvetica] ;
edge [fontname=helvetica] ;
0 [label="X[7] <= 640.0\ngini = 0.5551\nsamples = 1002\nvalue = [93, 86, 197, 626]", fillcolor="#d739e588"] ;
1 [label="X[4] <= -0.5\ngini = 0.4288\nsamples = 631\nvalue = [75, 86, 7, 463]", fillcolor="#d739e5b0"] ;
0 -> 1 [labeldistance=2.5, labelangle=45, headlabel="True"] ;
2 [label="X[5] <= 632.0\ngini = 0.4102\nsamples = 82\nvalue = [59, 0, 1, 22]", fillcolor="#e581399d"] ;
1 -> 2 ;
3 [label="X[7] <= 601.0\ngini = 0.3232\nsamples = 74\nvalue = [59, 0, 0, 15]", fillcolor="#e58139be"] ;
2 -> 3 ;
4 [label="X[5] <= 528.5\ngini = 0.1709\nsamples = 53\nvalue = [48, 0, 0, 5]", fillcolor="#e58139e4"] ;
3 -> 4 ;
5 [label="X[1] <= 322.5\ngini = 0.0815\nsamples = 47\nvalue = [45, 0, 0, 2]", fillcolor="#e58139f4"] ;
4 -> 5 ;
6 [label="gini = 0.5\nsamples = 2\nvalue = [1, 0, 0, 1]", fillcolor="#e5813900"] ;
5 -> 6 ;
7 [label="gini = 0.0435\nsamples = 45\nvalue = [44, 0, 0, 1]", fillcolor="#e58139f9"] ;
5 -> 7 ;
8 [label="X[2] <= 74.5\ngini = 0.5\nsamples = 6\nvalue = [3, 0, 0, 3]", fillcolor="#e5813900"] ;
4 -> 8 ;
9 [label="gini = 0.0\nsamples = 3\nvalue = [3, 0, 0, 0]", fillcolor="#e58139ff"] ;
8 -> 9 ;
10 [label="gini = 0.0\nsamples = 3\nvalue = [0, 0, 0, 3]", fillcolor="#d739e5ff"] ;
8 -> 10 ;
11 [label="X[2] <= 109.0\ngini = 0.4989\nsamples = 21\nvalue = [11, 0, 0, 10]", fillcolor="#e5813917"] ;
3 -> 11 ;
12 [label="X[1] <= 629.0\ngini = 0.4444\nsamples = 15\nvalue = [5, 0, 0, 10]", fillcolor="#d739e57f"] ;
11 -> 12 ;
13 [label="gini = 0.355\nsamples = 13\nvalue = [3, 0, 0, 10]", fillcolor="#d739e5b3"] ;
12 -> 13 ;
14 [label="gini = 0.0\nsamples = 2\nvalue = [2, 0, 0, 0]", fillcolor="#e58139ff"] ;
12 -> 14 ;
15 [label="gini = 0.0\nsamples = 6\nvalue = [6, 0, 0, 0]", fillcolor="#e58139ff"] ;
11 -> 15 ;
16 [label="X[2] <= 77.5\ngini = 0.2188\nsamples = 8\nvalue = [0, 0, 1, 7]", fillcolor="#d739e5db"] ;
2 -> 16 ;
17 [label="gini = 0.0\nsamples = 7\nvalue = [0, 0, 0, 7]", fillcolor="#d739e5ff"] ;
16 -> 17 ;
18 [label="gini = 0.0\nsamples = 1\nvalue = [0, 0, 1, 0]", fillcolor="#399de5ff"] ;
16 -> 18 ;
19 [label="X[3] <= 640.0\ngini = 0.3292\nsamples = 549\nvalue = [16, 86, 6, 441]", fillcolor="#d739e5c4"] ;
1 -> 19 ;
20 [label="X[6] <= 45.5\ngini = 0.1731\nsamples = 408\nvalue = [11, 25, 2, 370]", fillcolor="#d739e5e6"] ;
19 -> 20 ;
21 [label="X[3] <= 410.5\ngini = 0.0768\nsamples = 327\nvalue = [11, 2, 0, 314]", fillcolor="#d739e5f5"] ;
20 -> 21 ;
22 [label="X[7] <= 525.5\ngini = 0.4444\nsamples = 21\nvalue = [7, 0, 0, 14]", fillcolor="#d739e57f"] ;
21 -> 22 ;
23 [label="gini = 0.3878\nsamples = 19\nvalue = [5, 0, 0, 14]", fillcolor="#d739e5a4"] ;
22 -> 23 ;
24 [label="gini = 0.0\nsamples = 2\nvalue = [2, 0, 0, 0]", fillcolor="#e58139ff"] ;
22 -> 24 ;
25 [label="X[1] <= 356.5\ngini = 0.0386\nsamples = 306\nvalue = [4, 2, 0, 300]", fillcolor="#d739e5fa"] ;
21 -> 25 ;
26 [label="gini = 0.1653\nsamples = 44\nvalue = [4, 0, 0, 40]", fillcolor="#d739e5e6"] ;
25 -> 26 ;
27 [label="gini = 0.0152\nsamples = 262\nvalue = [0, 2, 0, 260]", fillcolor="#d739e5fd"] ;
25 -> 27 ;
28 [label="X[4] <= 101.5\ngini = 0.4408\nsamples = 81\nvalue = [0, 23, 2, 56]", fillcolor="#d739e591"] ;
20 -> 28 ;
29 [label="X[1] <= 402.5\ngini = 0.4043\nsamples = 32\nvalue = [0, 23, 0, 9]", fillcolor="#47e5399b"] ;
28 -> 29 ;
30 [label="gini = 0.2041\nsamples = 26\nvalue = [0, 23, 0, 3]", fillcolor="#47e539de"] ;
29 -> 30 ;
31 [label="gini = 0.0\nsamples = 6\nvalue = [0, 0, 0, 6]", fillcolor="#d739e5ff"] ;
29 -> 31 ;
32 [label="X[6] <= 88.5\ngini = 0.0783\nsamples = 49\nvalue = [0, 0, 2, 47]", fillcolor="#d739e5f4"] ;
28 -> 32 ;
33 [label="gini = 0.0\nsamples = 43\nvalue = [0, 0, 0, 43]", fillcolor="#d739e5ff"] ;
32 -> 33 ;
34 [label="gini = 0.4444\nsamples = 6\nvalue = [0, 0, 2, 4]", fillcolor="#d739e57f"] ;
32 -> 34 ;
35 [label="X[0] <= 164.5\ngini = 0.5572\nsamples = 141\nvalue = [5, 61, 4, 71]", fillcolor="#d739e520"] ;
19 -> 35 ;
36 [label="X[6] <= 58.5\ngini = 0.142\nsamples = 52\nvalue = [0, 0, 4, 48]", fillcolor="#d739e5ea"] ;
35 -> 36 ;
37 [label="X[7] <= 602.5\ngini = 0.0416\nsamples = 47\nvalue = [0, 0, 1, 46]", fillcolor="#d739e5f9"] ;
36 -> 37 ;
38 [label="gini = 0.0\nsamples = 44\nvalue = [0, 0, 0, 44]", fillcolor="#d739e5ff"] ;
37 -> 38 ;
39 [label="gini = 0.4444\nsamples = 3\nvalue = [0, 0, 1, 2]", fillcolor="#d739e57f"] ;
37 -> 39 ;
40 [label="X[2] <= 170.0\ngini = 0.48\nsamples = 5\nvalue = [0, 0, 3, 2]", fillcolor="#399de555"] ;
36 -> 40 ;
41 [label="gini = 0.0\nsamples = 2\nvalue = [0, 0, 2, 0]", fillcolor="#399de5ff"] ;
40 -> 41 ;
42 [label="gini = 0.4444\nsamples = 3\nvalue = [0, 0, 1, 2]", fillcolor="#d739e57f"] ;
40 -> 42 ;
43 [label="X[4] <= 65.0\ngini = 0.4603\nsamples = 89\nvalue = [5, 61, 0, 23]", fillcolor="#47e53993"] ;
35 -> 43 ;
44 [label="X[1] <= 615.0\ngini = 0.2241\nsamples = 70\nvalue = [0, 61, 0, 9]", fillcolor="#47e539d9"] ;
43 -> 44 ;
45 [label="gini = 0.0\nsamples = 9\nvalue = [0, 0, 0, 9]", fillcolor="#d739e5ff"] ;
44 -> 45 ;
46 [label="gini = 0.0\nsamples = 61\nvalue = [0, 61, 0, 0]", fillcolor="#47e539ff"] ;
44 -> 46 ;
47 [label="X[7] <= 515.5\ngini = 0.3878\nsamples = 19\nvalue = [5, 0, 0, 14]", fillcolor="#d739e5a4"] ;
43 -> 47 ;
48 [label="gini = 0.0\nsamples = 5\nvalue = [5, 0, 0, 0]", fillcolor="#e58139ff"] ;
47 -> 48 ;
49 [label="gini = 0.0\nsamples = 14\nvalue = [0, 0, 0, 14]", fillcolor="#d739e5ff"] ;
47 -> 49 ;
50 [label="X[4] <= 119.0\ngini = 0.5423\nsamples = 371\nvalue = [18, 0, 190, 163]", fillcolor="#399de521"] ;
0 -> 50 [labeldistance=2.5, labelangle=-45, headlabel="False"] ;
51 [label="X[3] <= 424.5\ngini = 0.5279\nsamples = 209\nvalue = [16, 0, 67, 126]", fillcolor="#d739e56a"] ;
50 -> 51 ;
52 [label="X[0] <= 156.5\ngini = 0.6008\nsamples = 35\nvalue = [8, 0, 19, 8]", fillcolor="#399de568"] ;
51 -> 52 ;
53 [label="X[1] <= 432.5\ngini = 0.18\nsamples = 20\nvalue = [0, 0, 18, 2]", fillcolor="#399de5e3"] ;
52 -> 53 ;
54 [label="X[5] <= 572.0\ngini = 0.5\nsamples = 2\nvalue = [0, 0, 1, 1]", fillcolor="#399de500"] ;
53 -> 54 ;
55 [label="gini = 0.0\nsamples = 1\nvalue = [0, 0, 0, 1]", fillcolor="#d739e5ff"] ;
54 -> 55 ;
56 [label="gini = 0.0\nsamples = 1\nvalue = [0, 0, 1, 0]", fillcolor="#399de5ff"] ;
54 -> 56 ;
57 [label="X[3] <= 321.0\ngini = 0.1049\nsamples = 18\nvalue = [0, 0, 17, 1]", fillcolor="#399de5f0"] ;
53 -> 57 ;
58 [label="gini = 0.4444\nsamples = 3\nvalue = [0, 0, 2, 1]", fillcolor="#399de57f"] ;
57 -> 58 ;
59 [label="gini = 0.0\nsamples = 15\nvalue = [0, 0, 15, 0]", fillcolor="#399de5ff"] ;
57 -> 59 ;
60 [label="X[4] <= 39.0\ngini = 0.5511\nsamples = 15\nvalue = [8, 0, 1, 6]", fillcolor="#e5813939"] ;
52 -> 60 ;
61 [label="X[5] <= 550.5\ngini = 0.4898\nsamples = 14\nvalue = [8, 0, 0, 6]", fillcolor="#e5813940"] ;
60 -> 61 ;
62 [label="gini = 0.4959\nsamples = 11\nvalue = [5, 0, 0, 6]", fillcolor="#d739e52a"] ;
61 -> 62 ;
63 [label="gini = 0.0\nsamples = 3\nvalue = [3, 0, 0, 0]", fillcolor="#e58139ff"] ;
61 -> 63 ;
64 [label="gini = 0.0\nsamples = 1\nvalue = [0, 0, 1, 0]", fillcolor="#399de5ff"] ;
60 -> 64 ;
65 [label="X[5] <= 512.5\ngini = 0.4619\nsamples = 174\nvalue = [8, 0, 48, 118]", fillcolor="#d739e58e"] ;
51 -> 65 ;
66 [label="X[6] <= 3.5\ngini = 0.562\nsamples = 11\nvalue = [4, 0, 6, 1]", fillcolor="#399de549"] ;
65 -> 66 ;
67 [label="X[1] <= 354.0\ngini = 0.32\nsamples = 5\nvalue = [4, 0, 0, 1]", fillcolor="#e58139bf"] ;
66 -> 67 ;
68 [label="gini = 0.0\nsamples = 1\nvalue = [0, 0, 0, 1]", fillcolor="#d739e5ff"] ;
67 -> 68 ;
69 [label="gini = 0.0\nsamples = 4\nvalue = [4, 0, 0, 0]", fillcolor="#e58139ff"] ;
67 -> 69 ;
70 [label="gini = 0.0\nsamples = 6\nvalue = [0, 0, 6, 0]", fillcolor="#399de5ff"] ;
66 -> 70 ;
71 [label="X[0] <= 208.5\ngini = 0.4178\nsamples = 163\nvalue = [4, 0, 42, 117]", fillcolor="#d739e59e"] ;
65 -> 71 ;
72 [label="X[1] <= 530.0\ngini = 0.3259\nsamples = 122\nvalue = [0, 0, 25, 97]", fillcolor="#d739e5bd"] ;
71 -> 72 ;
73 [label="gini = 0.0512\nsamples = 38\nvalue = [0, 0, 1, 37]", fillcolor="#d739e5f8"] ;
72 -> 73 ;
74 [label="gini = 0.4082\nsamples = 84\nvalue = [0, 0, 24, 60]", fillcolor="#d739e599"] ;
72 -> 74 ;
75 [label="X[2] <= 98.0\ngini = 0.5806\nsamples = 41\nvalue = [4, 0, 17, 20]", fillcolor="#d739e520"] ;
71 -> 75 ;
76 [label="gini = 0.3648\nsamples = 25\nvalue = [0, 0, 6, 19]", fillcolor="#d739e5ae"] ;
75 -> 76 ;
77 [label="gini = 0.4609\nsamples = 16\nvalue = [4, 0, 11, 1]", fillcolor="#399de595"] ;
75 -> 77 ;
78 [label="X[3] <= 562.0\ngini = 0.3712\nsamples = 162\nvalue = [2, 0, 123, 37]", fillcolor="#399de5af"] ;
50 -> 78 ;
79 [label="X[4] <= 284.0\ngini = 0.027\nsamples = 73\nvalue = [0, 0, 72, 1]", fillcolor="#399de5fb"] ;
78 -> 79 ;
80 [label="gini = 0.0\nsamples = 66\nvalue = [0, 0, 66, 0]", fillcolor="#399de5ff"] ;
79 -> 80 ;
81 [label="X[3] <= 501.0\ngini = 0.2449\nsamples = 7\nvalue = [0, 0, 6, 1]", fillcolor="#399de5d4"] ;
79 -> 81 ;
82 [label="gini = 0.0\nsamples = 6\nvalue = [0, 0, 6, 0]", fillcolor="#399de5ff"] ;
81 -> 82 ;
83 [label="gini = 0.0\nsamples = 1\nvalue = [0, 0, 0, 1]", fillcolor="#d739e5ff"] ;
81 -> 83 ;
84 [label="X[6] <= 119.5\ngini = 0.5075\nsamples = 89\nvalue = [2, 0, 51, 36]", fillcolor="#399de548"] ;
78 -> 84 ;
85 [label="X[2] <= 247.5\ngini = 0.4835\nsamples = 81\nvalue = [2, 0, 51, 28]", fillcolor="#399de56f"] ;
84 -> 85 ;
86 [label="X[6] <= 101.0\ngini = 0.517\nsamples = 55\nvalue = [1, 0, 28, 26]", fillcolor="#399de512"] ;
85 -> 86 ;
87 [label="gini = 0.5065\nsamples = 49\nvalue = [1, 0, 28, 20]", fillcolor="#399de546"] ;
86 -> 87 ;
88 [label="gini = 0.0\nsamples = 6\nvalue = [0, 0, 0, 6]", fillcolor="#d739e5ff"] ;
86 -> 88 ;
89 [label="X[0] <= 314.5\ngini = 0.2101\nsamples = 26\nvalue = [1, 0, 23, 2]", fillcolor="#399de5df"] ;
85 -> 89 ;
90 [label="gini = 0.1472\nsamples = 25\nvalue = [0, 0, 23, 2]", fillcolor="#399de5e9"] ;
89 -> 90 ;
91 [label="gini = 0.0\nsamples = 1\nvalue = [1, 0, 0, 0]", fillcolor="#e58139ff"] ;
89 -> 91 ;
92 [label="gini = 0.0\nsamples = 8\nvalue = [0, 0, 0, 8]", fillcolor="#d739e5ff"] ;
84 -> 92 ;
}